[{"linear1.weight": [[0.08305900543928146, -0.8036120533943176, -0.693565845489502, 0.020554937422275543, -4.597103595733643, 4.382890701293945, -2.5739219188690186, -0.3320337235927582, 0.9034051299095154, -2.902682304382324, -0.36224913597106934, 3.1919074058532715], [0.6137447357177734, 0.17461666464805603, -0.4433283507823944, 0.7070423364639282, -0.3326530456542969, 0.4398345649242401, 0.1936839520931244, -0.4587295949459076, 0.3653120696544647, 0.10048045217990875, -0.45267632603645325, 0.2954711318016052], [0.20401233434677124, -0.21369343996047974, 1.5273010730743408, 1.1061753034591675, 1.4441698789596558, -1.4837359189987183, 1.2804023027420044, 2.1775338649749756, -0.5294609069824219, -0.045842818915843964, 0.8827532529830933, -0.21925897896289825], [-0.11924407631158829, 0.41423681378364563, -1.5086493492126465, -1.20339834690094, -1.5414332151412964, 1.1803436279296875, -1.3722491264343262, -1.7169225215911865, 0.6088804006576538, -1.1317830085754395, -1.2061424255371094, 0.144892618060112], [0.41022735834121704, 3.128941297531128, 2.13627290725708, -1.4273453950881958, -3.6105005741119385, 3.392592668533325, -6.3083577156066895, -0.9472494125366211, 1.1384646892547607, -1.2692739963531494, -5.144494533538818, 1.060482144355774], [-1.6492857933044434, -3.281599998474121, 4.755261421203613, -0.020154399797320366, 1.044499158859253, 1.2984851598739624, 3.503196954727173, 1.5226023197174072, 0.9668828845024109, 1.5016834735870361, 7.976100921630859, -5.198523998260498], [-0.136182963848114, 1.8968486785888672, 3.8294804096221924, -0.10361162573099136, -1.9970359802246094, -0.06174410134553909, -7.2865400314331055, 2.681469202041626, -1.0828166007995605, -2.5086052417755127, -3.2574305534362793, 1.1778188943862915], [0.1370248645544052, 3.677135467529297, -3.883714437484741, -0.12163396179676056, -4.614617824554443, 2.6424665451049805, -5.279919147491455, -2.327345609664917, -0.13758622109889984, -5.820919036865234, -0.4581049382686615, -1.2451200485229492]]}, {"linear1.bias": [-0.6082044839859009, 0.5882717370986938, 0.391855925321579, -0.7459460496902466, -0.8088475465774536, 3.128666400909424, -1.171563982963562, -1.9151784181594849]}, {"linear2.weight": [[1.8037854433059692, -0.6758264899253845, -0.7671045660972595, 0.8074811697006226, 2.2094082832336426, -2.013237476348877, 2.67598295211792, 1.2343025207519531], [-1.9474952220916748, 0.14272403717041016, 1.2999870777130127, -0.7050155401229858, -2.153118133544922, 2.6231484413146973, -3.1991989612579346, -1.3412564992904663], [-2.3341689109802246, 0.4923509359359741, 1.4139809608459473, -1.1748636960983276, -2.2854793071746826, 2.4337148666381836, -3.140184164047241, -1.2599165439605713], [2.262814521789551, -0.15094837546348572, -1.2463244199752808, 0.8301494717597961, 2.3754074573516846, -2.3079638481140137, 2.9808566570281982, 1.2256059646606445], [2.206078290939331, -0.15447571873664856, -1.187936782836914, 0.6047358512878418, 1.873818278312683, -2.296902894973755, 2.4216911792755127, 1.0224498510360718], [2.179835319519043, -0.4604078531265259, -0.9843583106994629, 0.8851197361946106, 2.2390828132629395, -2.2312614917755127, 2.6340601444244385, 1.2075490951538086]]}, {"linear2.bias": [-0.4505119025707245, 0.39760708808898926, 0.14094839990139008, -0.7398990988731384, -0.4587976336479187, -0.5715020298957825]}, {"linear3.weight": [[1.6093217134475708, -2.1131579875946045, -2.6788787841796875, 1.6438179016113281, 1.4888355731964111, 1.6163007020950317], [-1.5303263664245605, 2.068264961242676, 2.225180149078369, -1.5784670114517212, -1.6834672689437866, -1.5379456281661987]]}, {"linear3.bias": [-0.44538620114326477, 0.4949347674846649]}]